digraph Tree {
node [shape=box, style="filled, rounded", color="black", fontname="helvetica"] ;
edge [fontname="helvetica"] ;
0 [label="high value <= 72.069\nentropy = 0.958\nsamples = 29\nvalue = [18, 11]\nclass = high value", fillcolor="#f5ceb2"] ;
1 [label="potential <= 100.336\nentropy = 0.811\nsamples = 24\nvalue = [18, 6]\nclass = high value", fillcolor="#eeab7b"] ;
0 -> 1 [labeldistance=2.5, labelangle=45, headlabel="True"] ;
2 [label="entropy = 0.0\nsamples = 4\nvalue = [0, 4]\nclass = low value", fillcolor="#399de5"] ;
1 -> 2 ;
3 [label="potential <= 126.636\nentropy = 0.469\nsamples = 20\nvalue = [18, 2]\nclass = high value", fillcolor="#e88f4f"] ;
1 -> 3 ;
4 [label="entropy = 0.65\nsamples = 12\nvalue = [10, 2]\nclass = high value", fillcolor="#ea9a61"] ;
3 -> 4 ;
5 [label="entropy = 0.0\nsamples = 8\nvalue = [8, 0]\nclass = high value", fillcolor="#e58139"] ;
3 -> 5 ;
6 [label="entropy = 0.0\nsamples = 5\nvalue = [0, 5]\nclass = low value", fillcolor="#399de5"] ;
0 -> 6 [labeldistance=2.5, labelangle=-45, headlabel="False"] ;
}